digraph Tree {
node [shape=box, style="filled", color="black"] ;
0 [label="X[1] <= 2.03\ngini = 0.75\nsamples = 448\nvalue = [112, 112, 112, 112]", fillcolor="#ffffff"] ;
1 [label="X[0] <= -1.915\ngini = 0.75\nsamples = 445\nvalue = [112, 109, 112, 112]", fillcolor="#ffffff"] ;
0 -> 1 [labeldistance=2.5, labelangle=45, headlabel="True"] ;
2 [label="X[1] <= -0.908\ngini = 0.684\nsamples = 14\nvalue = [6, 1, 3, 4]", fillcolor="#fae6d7"] ;
1 -> 2 ;
3 [label="gini = 0.0\nsamples = 6\nvalue = [6, 0, 0, 0]", fillcolor="#e58139"] ;
2 -> 3 ;
4 [label="X[1] <= -0.226\ngini = 0.594\nsamples = 8\nvalue = [0, 1, 3, 4]", fillcolor="#f7d7fa"] ;
2 -> 4 ;
5 [label="gini = 0.0\nsamples = 4\nvalue = [0, 0, 0, 4]", fillcolor="#d739e5"] ;
4 -> 5 ;
6 [label="X[1] <= 0.78\ngini = 0.375\nsamples = 4\nvalue = [0, 1, 3, 0]", fillcolor="#7bbeee"] ;
4 -> 6 ;
7 [label="gini = 0.0\nsamples = 3\nvalue = [0, 0, 3, 0]", fillcolor="#399de5"] ;
6 -> 7 ;
8 [label="gini = 0.0\nsamples = 1\nvalue = [0, 1, 0, 0]", fillcolor="#47e539"] ;
6 -> 8 ;
9 [label="X[1] <= 0.668\ngini = 0.75\nsamples = 431\nvalue = [106, 108, 109, 108]", fillcolor="#feffff"] ;
1 -> 9 ;
10 [label="X[0] <= -0.062\ngini = 0.748\nsamples = 280\nvalue = [67, 78, 72, 63]", fillcolor="#fafef9"] ;
9 -> 10 ;
11 [label="X[1] <= -0.845\ngini = 0.712\nsamples = 127\nvalue = [50, 25, 17, 35]", fillcolor="#fbeadf"] ;
10 -> 11 ;
12 [label="X[0] <= -1.002\ngini = 0.518\nsamples = 53\nvalue = [27, 25, 1, 0]", fillcolor="#fdf6f1"] ;
11 -> 12 ;
13 [label="gini = 0.0\nsamples = 22\nvalue = [22, 0, 0, 0]", fillcolor="#e58139"] ;
12 -> 13 ;
14 [label="X[1] <= -1.128\ngini = 0.323\nsamples = 31\nvalue = [5, 25, 1, 0]", fillcolor="#71eb67"] ;
12 -> 14 ;
15 [label="X[0] <= -0.18\ngini = 0.08\nsamples = 24\nvalue = [0, 23, 1, 0]", fillcolor="#4fe642"] ;
14 -> 15 ;
16 [label="gini = 0.0\nsamples = 21\nvalue = [0, 21, 0, 0]", fillcolor="#47e539"] ;
15 -> 16 ;
17 [label="X[0] <= -0.139\ngini = 0.444\nsamples = 3\nvalue = [0, 2, 1, 0]", fillcolor="#a3f29c"] ;
15 -> 17 ;
18 [label="gini = 0.0\nsamples = 1\nvalue = [0, 0, 1, 0]", fillcolor="#399de5"] ;
17 -> 18 ;
19 [label="gini = 0.0\nsamples = 2\nvalue = [0, 2, 0, 0]", fillcolor="#47e539"] ;
17 -> 19 ;
20 [label="X[0] <= -0.453\ngini = 0.408\nsamples = 7\nvalue = [5, 2, 0, 0]", fillcolor="#efb388"] ;
14 -> 20 ;
21 [label="X[1] <= -0.964\ngini = 0.444\nsamples = 3\nvalue = [1, 2, 0, 0]", fillcolor="#a3f29c"] ;
20 -> 21 ;
22 [label="gini = 0.0\nsamples = 2\nvalue = [0, 2, 0, 0]", fillcolor="#47e539"] ;
21 -> 22 ;
23 [label="gini = 0.0\nsamples = 1\nvalue = [1, 0, 0, 0]", fillcolor="#e58139"] ;
21 -> 23 ;
24 [label="gini = 0.0\nsamples = 4\nvalue = [4, 0, 0, 0]", fillcolor="#e58139"] ;
20 -> 24 ;
25 [label="X[0] <= -0.902\ngini = 0.633\nsamples = 74\nvalue = [23, 0, 16, 35]", fillcolor="#f6d0f9"] ;
11 -> 25 ;
26 [label="X[1] <= 0.02\ngini = 0.495\nsamples = 43\nvalue = [1, 0, 16, 26]", fillcolor="#f0b6f5"] ;
25 -> 26 ;
27 [label="X[0] <= -0.992\ngini = 0.08\nsamples = 24\nvalue = [1, 0, 0, 23]", fillcolor="#d942e6"] ;
26 -> 27 ;
28 [label="gini = 0.0\nsamples = 23\nvalue = [0, 0, 0, 23]", fillcolor="#d739e5"] ;
27 -> 28 ;
29 [label="gini = 0.0\nsamples = 1\nvalue = [1, 0, 0, 0]", fillcolor="#e58139"] ;
27 -> 29 ;
30 [label="X[0] <= -1.334\ngini = 0.266\nsamples = 19\nvalue = [0, 0, 16, 3]", fillcolor="#5eafea"] ;
26 -> 30 ;
31 [label="gini = 0.0\nsamples = 13\nvalue = [0, 0, 13, 0]", fillcolor="#399de5"] ;
30 -> 31 ;
32 [label="X[0] <= -1.226\ngini = 0.5\nsamples = 6\nvalue = [0, 0, 3, 3]", fillcolor="#ffffff"] ;
30 -> 32 ;
33 [label="gini = 0.0\nsamples = 1\nvalue = [0, 0, 0, 1]", fillcolor="#d739e5"] ;
32 -> 33 ;
34 [label="X[0] <= -1.116\ngini = 0.48\nsamples = 5\nvalue = [0, 0, 3, 2]", fillcolor="#bddef6"] ;
32 -> 34 ;
35 [label="gini = 0.0\nsamples = 2\nvalue = [0, 0, 2, 0]", fillcolor="#399de5"] ;
34 -> 35 ;
36 [label="X[1] <= 0.133\ngini = 0.444\nsamples = 3\nvalue = [0, 0, 1, 2]", fillcolor="#eb9cf2"] ;
34 -> 36 ;
37 [label="gini = 0.0\nsamples = 1\nvalue = [0, 0, 1, 0]", fillcolor="#399de5"] ;
36 -> 37 ;
38 [label="gini = 0.0\nsamples = 2\nvalue = [0, 0, 0, 2]", fillcolor="#d739e5"] ;
36 -> 38 ;
39 [label="X[1] <= 0.203\ngini = 0.412\nsamples = 31\nvalue = [22, 0, 0, 9]", fillcolor="#f0b58a"] ;
25 -> 39 ;
40 [label="X[1] <= -0.032\ngini = 0.083\nsamples = 23\nvalue = [22, 0, 0, 1]", fillcolor="#e68742"] ;
39 -> 40 ;
41 [label="gini = 0.0\nsamples = 19\nvalue = [19, 0, 0, 0]", fillcolor="#e58139"] ;
40 -> 41 ;
42 [label="X[1] <= -0.009\ngini = 0.375\nsamples = 4\nvalue = [3, 0, 0, 1]", fillcolor="#eeab7b"] ;
40 -> 42 ;
43 [label="gini = 0.0\nsamples = 1\nvalue = [0, 0, 0, 1]", fillcolor="#d739e5"] ;
42 -> 43 ;
44 [label="gini = 0.0\nsamples = 3\nvalue = [3, 0, 0, 0]", fillcolor="#e58139"] ;
42 -> 44 ;
45 [label="gini = 0.0\nsamples = 8\nvalue = [0, 0, 0, 8]", fillcolor="#d739e5"] ;
39 -> 45 ;
46 [label="X[1] <= -0.897\ngini = 0.705\nsamples = 153\nvalue = [17, 53, 55, 28]", fillcolor="#fbfdfe"] ;
10 -> 46 ;
47 [label="X[0] <= 0.894\ngini = 0.558\nsamples = 62\nvalue = [0, 4, 30, 28]", fillcolor="#f3f9fd"] ;
46 -> 47 ;
48 [label="X[0] <= 0.08\ngini = 0.231\nsamples = 30\nvalue = [0, 4, 26, 0]", fillcolor="#57ace9"] ;
47 -> 48 ;
49 [label="X[0] <= 0.009\ngini = 0.48\nsamples = 5\nvalue = [0, 3, 2, 0]", fillcolor="#c2f6bd"] ;
48 -> 49 ;
50 [label="X[1] <= -1.489\ngini = 0.444\nsamples = 3\nvalue = [0, 1, 2, 0]", fillcolor="#9ccef2"] ;
49 -> 50 ;
51 [label="gini = 0.0\nsamples = 1\nvalue = [0, 1, 0, 0]", fillcolor="#47e539"] ;
50 -> 51 ;
52 [label="gini = 0.0\nsamples = 2\nvalue = [0, 0, 2, 0]", fillcolor="#399de5"] ;
50 -> 52 ;
53 [label="gini = 0.0\nsamples = 2\nvalue = [0, 2, 0, 0]", fillcolor="#47e539"] ;
49 -> 53 ;
54 [label="X[1] <= -1.028\ngini = 0.077\nsamples = 25\nvalue = [0, 1, 24, 0]", fillcolor="#41a1e6"] ;
48 -> 54 ;
55 [label="gini = 0.0\nsamples = 24\nvalue = [0, 0, 24, 0]", fillcolor="#399de5"] ;
54 -> 55 ;
56 [label="gini = 0.0\nsamples = 1\nvalue = [0, 1, 0, 0]", fillcolor="#47e539"] ;
54 -> 56 ;
57 [label="X[1] <= -1.195\ngini = 0.219\nsamples = 32\nvalue = [0, 0, 4, 28]", fillcolor="#dd55e9"] ;
47 -> 57 ;
58 [label="X[0] <= 1.028\ngini = 0.08\nsamples = 24\nvalue = [0, 0, 1, 23]", fillcolor="#d942e6"] ;
57 -> 58 ;
59 [label="X[1] <= -1.504\ngini = 0.5\nsamples = 2\nvalue = [0, 0, 1, 1]", fillcolor="#ffffff"] ;
58 -> 59 ;
60 [label="gini = 0.0\nsamples = 1\nvalue = [0, 0, 1, 0]", fillcolor="#399de5"] ;
59 -> 60 ;
61 [label="gini = 0.0\nsamples = 1\nvalue = [0, 0, 0, 1]", fillcolor="#d739e5"] ;
59 -> 61 ;
62 [label="gini = 0.0\nsamples = 22\nvalue = [0, 0, 0, 22]", fillcolor="#d739e5"] ;
58 -> 62 ;
63 [label="X[1] <= -1.094\ngini = 0.469\nsamples = 8\nvalue = [0, 0, 3, 5]", fillcolor="#efb0f5"] ;
57 -> 63 ;
64 [label="gini = 0.0\nsamples = 1\nvalue = [0, 0, 1, 0]", fillcolor="#399de5"] ;
63 -> 64 ;
65 [label="X[0] <= 1.461\ngini = 0.408\nsamples = 7\nvalue = [0, 0, 2, 5]", fillcolor="#e788ef"] ;
63 -> 65 ;
66 [label="X[0] <= 1.178\ngini = 0.5\nsamples = 4\nvalue = [0, 0, 2, 2]", fillcolor="#ffffff"] ;
65 -> 66 ;
67 [label="gini = 0.0\nsamples = 1\nvalue = [0, 0, 0, 1]", fillcolor="#d739e5"] ;
66 -> 67 ;
68 [label="X[0] <= 1.207\ngini = 0.444\nsamples = 3\nvalue = [0, 0, 2, 1]", fillcolor="#9ccef2"] ;
66 -> 68 ;
69 [label="gini = 0.0\nsamples = 1\nvalue = [0, 0, 1, 0]", fillcolor="#399de5"] ;
68 -> 69 ;
70 [label="X[1] <= -1.029\ngini = 0.5\nsamples = 2\nvalue = [0, 0, 1, 1]", fillcolor="#ffffff"] ;
68 -> 70 ;
71 [label="gini = 0.0\nsamples = 1\nvalue = [0, 0, 0, 1]", fillcolor="#d739e5"] ;
70 -> 71 ;
72 [label="gini = 0.0\nsamples = 1\nvalue = [0, 0, 1, 0]", fillcolor="#399de5"] ;
70 -> 72 ;
73 [label="gini = 0.0\nsamples = 3\nvalue = [0, 0, 0, 3]", fillcolor="#d739e5"] ;
65 -> 73 ;
74 [label="X[0] <= 1.042\ngini = 0.6\nsamples = 91\nvalue = [17, 49, 25, 0]", fillcolor="#bcf6b7"] ;
46 -> 74 ;
75 [label="X[1] <= -0.116\ngini = 0.47\nsamples = 45\nvalue = [17, 28, 0, 0]", fillcolor="#b7f5b1"] ;
74 -> 75 ;
76 [label="gini = 0.0\nsamples = 25\nvalue = [0, 25, 0, 0]", fillcolor="#47e539"] ;
75 -> 76 ;
77 [label="X[0] <= 0.922\ngini = 0.255\nsamples = 20\nvalue = [17, 3, 0, 0]", fillcolor="#ea975c"] ;
75 -> 77 ;
78 [label="X[1] <= -0.032\ngini = 0.111\nsamples = 17\nvalue = [16, 1, 0, 0]", fillcolor="#e78945"] ;
77 -> 78 ;
79 [label="X[1] <= -0.091\ngini = 0.5\nsamples = 2\nvalue = [1, 1, 0, 0]", fillcolor="#ffffff"] ;
78 -> 79 ;
80 [label="gini = 0.0\nsamples = 1\nvalue = [1, 0, 0, 0]", fillcolor="#e58139"] ;
79 -> 80 ;
81 [label="gini = 0.0\nsamples = 1\nvalue = [0, 1, 0, 0]", fillcolor="#47e539"] ;
79 -> 81 ;
82 [label="gini = 0.0\nsamples = 15\nvalue = [15, 0, 0, 0]", fillcolor="#e58139"] ;
78 -> 82 ;
83 [label="X[0] <= 1.032\ngini = 0.444\nsamples = 3\nvalue = [1, 2, 0, 0]", fillcolor="#a3f29c"] ;
77 -> 83 ;
84 [label="gini = 0.0\nsamples = 2\nvalue = [0, 2, 0, 0]", fillcolor="#47e539"] ;
83 -> 84 ;
85 [label="gini = 0.0\nsamples = 1\nvalue = [1, 0, 0, 0]", fillcolor="#e58139"] ;
83 -> 85 ;
86 [label="X[1] <= -0.033\ngini = 0.496\nsamples = 46\nvalue = [0, 21, 25, 0]", fillcolor="#dfeffb"] ;
74 -> 86 ;
87 [label="X[0] <= 1.094\ngini = 0.074\nsamples = 26\nvalue = [0, 1, 25, 0]", fillcolor="#41a1e6"] ;
86 -> 87 ;
88 [label="X[0] <= 1.049\ngini = 0.5\nsamples = 2\nvalue = [0, 1, 1, 0]", fillcolor="#ffffff"] ;
87 -> 88 ;
89 [label="gini = 0.0\nsamples = 1\nvalue = [0, 0, 1, 0]", fillcolor="#399de5"] ;
88 -> 89 ;
90 [label="gini = 0.0\nsamples = 1\nvalue = [0, 1, 0, 0]", fillcolor="#47e539"] ;
88 -> 90 ;
91 [label="gini = 0.0\nsamples = 24\nvalue = [0, 0, 24, 0]", fillcolor="#399de5"] ;
87 -> 91 ;
92 [label="gini = 0.0\nsamples = 20\nvalue = [0, 20, 0, 0]", fillcolor="#47e539"] ;
86 -> 92 ;
93 [label="X[0] <= 1.087\ngini = 0.745\nsamples = 151\nvalue = [39, 30, 37, 45]", fillcolor="#fdf4fe"] ;
9 -> 93 ;
94 [label="X[0] <= -1.046\ngini = 0.704\nsamples = 119\nvalue = [11, 26, 37, 45]", fillcolor="#fbecfc"] ;
93 -> 94 ;
95 [label="X[1] <= 0.888\ngini = 0.35\nsamples = 31\nvalue = [0, 24, 7, 0]", fillcolor="#7ded73"] ;
94 -> 95 ;
96 [label="gini = 0.0\nsamples = 7\nvalue = [0, 0, 7, 0]", fillcolor="#399de5"] ;
95 -> 96 ;
97 [label="gini = 0.0\nsamples = 24\nvalue = [0, 24, 0, 0]", fillcolor="#47e539"] ;
95 -> 97 ;
98 [label="X[0] <= -0.132\ngini = 0.606\nsamples = 88\nvalue = [11, 2, 30, 45]", fillcolor="#f5ccf8"] ;
94 -> 98 ;
99 [label="X[1] <= 0.996\ngini = 0.433\nsamples = 41\nvalue = [0, 0, 28, 13]", fillcolor="#95caf1"] ;
98 -> 99 ;
100 [label="X[0] <= -0.937\ngini = 0.245\nsamples = 14\nvalue = [0, 0, 2, 12]", fillcolor="#de5ae9"] ;
99 -> 100 ;
101 [label="gini = 0.0\nsamples = 1\nvalue = [0, 0, 1, 0]", fillcolor="#399de5"] ;
100 -> 101 ;
102 [label="X[0] <= -0.358\ngini = 0.142\nsamples = 13\nvalue = [0, 0, 1, 12]", fillcolor="#da49e7"] ;
100 -> 102 ;
103 [label="gini = 0.0\nsamples = 11\nvalue = [0, 0, 0, 11]", fillcolor="#d739e5"] ;
102 -> 103 ;
104 [label="X[0] <= -0.315\ngini = 0.5\nsamples = 2\nvalue = [0, 0, 1, 1]", fillcolor="#ffffff"] ;
102 -> 104 ;
105 [label="gini = 0.0\nsamples = 1\nvalue = [0, 0, 1, 0]", fillcolor="#399de5"] ;
104 -> 105 ;
106 [label="gini = 0.0\nsamples = 1\nvalue = [0, 0, 0, 1]", fillcolor="#d739e5"] ;
104 -> 106 ;
107 [label="X[0] <= -0.173\ngini = 0.071\nsamples = 27\nvalue = [0, 0, 26, 1]", fillcolor="#41a1e6"] ;
99 -> 107 ;
108 [label="gini = 0.0\nsamples = 25\nvalue = [0, 0, 25, 0]", fillcolor="#399de5"] ;
107 -> 108 ;
109 [label="X[0] <= -0.137\ngini = 0.5\nsamples = 2\nvalue = [0, 0, 1, 1]", fillcolor="#ffffff"] ;
107 -> 109 ;
110 [label="gini = 0.0\nsamples = 1\nvalue = [0, 0, 0, 1]", fillcolor="#d739e5"] ;
109 -> 110 ;
111 [label="gini = 0.0\nsamples = 1\nvalue = [0, 0, 1, 0]", fillcolor="#399de5"] ;
109 -> 111 ;
112 [label="X[1] <= 0.798\ngini = 0.478\nsamples = 47\nvalue = [11, 2, 2, 32]", fillcolor="#e88cf0"] ;
98 -> 112 ;
113 [label="X[0] <= 0.875\ngini = 0.34\nsamples = 10\nvalue = [8, 1, 0, 1]", fillcolor="#eb9d65"] ;
112 -> 113 ;
114 [label="X[0] <= 0.162\ngini = 0.198\nsamples = 9\nvalue = [8, 0, 0, 1]", fillcolor="#e89152"] ;
113 -> 114 ;
115 [label="X[0] <= 0.078\ngini = 0.444\nsamples = 3\nvalue = [2, 0, 0, 1]", fillcolor="#f2c09c"] ;
114 -> 115 ;
116 [label="gini = 0.0\nsamples = 2\nvalue = [2, 0, 0, 0]", fillcolor="#e58139"] ;
115 -> 116 ;
117 [label="gini = 0.0\nsamples = 1\nvalue = [0, 0, 0, 1]", fillcolor="#d739e5"] ;
115 -> 117 ;
118 [label="gini = 0.0\nsamples = 6\nvalue = [6, 0, 0, 0]", fillcolor="#e58139"] ;
114 -> 118 ;
119 [label="gini = 0.0\nsamples = 1\nvalue = [0, 1, 0, 0]", fillcolor="#47e539"] ;
113 -> 119 ;
120 [label="X[0] <= 1.069\ngini = 0.288\nsamples = 37\nvalue = [3, 1, 2, 31]", fillcolor="#de5cea"] ;
112 -> 120 ;
121 [label="X[1] <= 1.07\ngini = 0.248\nsamples = 36\nvalue = [3, 0, 2, 31]", fillcolor="#dd57e9"] ;
120 -> 121 ;
122 [label="X[0] <= 0.337\ngini = 0.444\nsamples = 9\nvalue = [3, 0, 0, 6]", fillcolor="#eb9cf2"] ;
121 -> 122 ;
123 [label="X[1] <= 1.04\ngini = 0.245\nsamples = 7\nvalue = [1, 0, 0, 6]", fillcolor="#de5ae9"] ;
122 -> 123 ;
124 [label="gini = 0.0\nsamples = 6\nvalue = [0, 0, 0, 6]", fillcolor="#d739e5"] ;
123 -> 124 ;
125 [label="gini = 0.0\nsamples = 1\nvalue = [1, 0, 0, 0]", fillcolor="#e58139"] ;
123 -> 125 ;
126 [label="gini = 0.0\nsamples = 2\nvalue = [2, 0, 0, 0]", fillcolor="#e58139"] ;
122 -> 126 ;
127 [label="X[0] <= 0.093\ngini = 0.137\nsamples = 27\nvalue = [0, 0, 2, 25]", fillcolor="#da49e7"] ;
121 -> 127 ;
128 [label="X[0] <= -0.057\ngini = 0.5\nsamples = 4\nvalue = [0, 0, 2, 2]", fillcolor="#ffffff"] ;
127 -> 128 ;
129 [label="gini = 0.0\nsamples = 1\nvalue = [0, 0, 0, 1]", fillcolor="#d739e5"] ;
128 -> 129 ;
130 [label="X[1] <= 1.402\ngini = 0.444\nsamples = 3\nvalue = [0, 0, 2, 1]", fillcolor="#9ccef2"] ;
128 -> 130 ;
131 [label="gini = 0.0\nsamples = 2\nvalue = [0, 0, 2, 0]", fillcolor="#399de5"] ;
130 -> 131 ;
132 [label="gini = 0.0\nsamples = 1\nvalue = [0, 0, 0, 1]", fillcolor="#d739e5"] ;
130 -> 132 ;
133 [label="gini = 0.0\nsamples = 23\nvalue = [0, 0, 0, 23]", fillcolor="#d739e5"] ;
127 -> 133 ;
134 [label="gini = 0.0\nsamples = 1\nvalue = [0, 1, 0, 0]", fillcolor="#47e539"] ;
120 -> 134 ;
135 [label="X[1] <= 0.919\ngini = 0.219\nsamples = 32\nvalue = [28, 4, 0, 0]", fillcolor="#e99355"] ;
93 -> 135 ;
136 [label="gini = 0.0\nsamples = 3\nvalue = [0, 3, 0, 0]", fillcolor="#47e539"] ;
135 -> 136 ;
137 [label="X[1] <= 1.085\ngini = 0.067\nsamples = 29\nvalue = [28, 1, 0, 0]", fillcolor="#e68640"] ;
135 -> 137 ;
138 [label="X[1] <= 1.056\ngini = 0.375\nsamples = 4\nvalue = [3, 1, 0, 0]", fillcolor="#eeab7b"] ;
137 -> 138 ;
139 [label="gini = 0.0\nsamples = 3\nvalue = [3, 0, 0, 0]", fillcolor="#e58139"] ;
138 -> 139 ;
140 [label="gini = 0.0\nsamples = 1\nvalue = [0, 1, 0, 0]", fillcolor="#47e539"] ;
138 -> 140 ;
141 [label="gini = 0.0\nsamples = 25\nvalue = [25, 0, 0, 0]", fillcolor="#e58139"] ;
137 -> 141 ;
142 [label="gini = 0.0\nsamples = 3\nvalue = [0, 3, 0, 0]", fillcolor="#47e539"] ;
0 -> 142 [labeldistance=2.5, labelangle=-45, headlabel="False"] ;
}